svm_type c_svc
kernel_type rbf
gamma 0.166667
nr_class 2
total_sv 159
rho -0.664515
label 1 -1
nr_sv 95 64
SV
0.006396478834226444 1:0 2:0 3:0 4:1 5:0 6:0 
0.004352878446931668 1:0 2:0 3:0 4:1 5:0 6:0 
0.004632861204380238 1:0 2:0 3:0 4:1 5:0 6:0 
0.004891566975291728 1:0 2:0 3:0 4:1 5:0 6:0 
0.01070270974956912 1:0 2:0 3:0 4:1 5:0 6:0 
0.01816495340960439 1:0 2:0 3:0 4:1 5:0 6:0 
0.1577027783379301 1:0 2:0 3:0 4:1 5:0 6:0 
1 1:0 2:0.055555556 3:0 4:1 5:0 6:3 
0.01973276627091071 1:0 2:0.055555556 3:0 4:1 5:0 6:2 
0.06039506934470817 1:0 2:0.05263158 3:0 4:1 5:0 6:2 
0.01026305279111162 1:0 2:0 3:0 4:1 5:0 6:0 
0.2572695182494164 1:0 2:0 3:0 4:1 5:0 6:2 
0.00200844235398388 1:0 2:0 3:0 4:1 5:0 6:0 
0.002003042600630009 1:0 2:0.05263158 3:0 4:1 5:0 6:2 
0.4006856853274481 1:0 2:0.055555556 3:0 4:1 5:0 6:1 
0.00603139638899226 1:0 2:0 3:0 4:1 5:0 6:0 
1 1:0 2:0.04347826 3:0 4:1 5:0 6:3 
0.01693438747950596 1:0 2:0.055555556 3:0 4:1 5:0 6:2 
0.4390057323284175 1:0 2:0 3:1 4:1 5:1 6:0 
0.08118896821247827 1:0 2:0 3:0 4:1 5:0 6:0 
0.313417379035099 1:0 2:0 3:0 4:1 5:0 6:0 
0.02510852023688642 1:0 2:0 3:0 4:1 5:0 6:0 
0.5959274501458502 1:0 2:0.25 3:0 4:1 5:0 6:2 
0.1540442326317254 1:0 2:1 3:0 4:1 5:0 6:5 
0.8145652615095306 1:0 2:0.22222222 3:0 4:1 5:0 6:2 
0.006573776106072346 1:0 2:0 3:0 4:1 5:0 6:0 
0.01490374823871725 1:0 2:0 3:0 4:1 5:0 6:0 
0.002271569455320268 1:0 2:0 3:0 4:1 5:0 6:0 
0.00288665385742209 1:0.14285715 2:0 3:0 4:1 5:0 6:0 
0.003353754887400479 1:0.14285715 2:0.06666667 3:0 4:1 5:0 6:1 
0.2503065447415893 1:0 2:0 3:0 4:1 5:0 6:0 
0.3291716557400637 1:0 2:0 3:0 4:1 5:0 6:0 
0.003681128855423299 1:0 2:0 3:0 4:1 5:0 6:0 
0.3666680541096406 1:1 2:0.16666667 3:0 4:1 5:0 6:2 
0.08963068830935893 1:0 2:0.083333336 3:0 4:1 5:0 6:1 
0.1899406247693733 1:0.6666667 2:1 3:0 4:1 5:0 6:11 
0.02671057881168095 1:0 2:0 3:0 4:1 5:0 6:0 
0.008274630328578092 1:0 2:0 3:0 4:1 5:0 6:0 
0.001076210598890104 1:0 2:0 3:0 4:1 5:0 6:0 
0.008300135095515694 1:0 2:0 3:0 4:1 5:0 6:0 
0.3208320299063284 1:0.6666667 2:0 3:0 4:1 5:0 6:0 
0.01168023696810172 1:0 2:0 3:0 4:1 5:0 6:0 
0.001316828873400071 1:0 2:0 3:0 4:1 5:0 6:0 
0.01461799879888733 1:0 2:0 3:0 4:1 5:0 6:0 
0.007306249613437846 1:0 2:0 3:0 4:1 5:0 6:0 
0.75321942433015 1:1 2:0.14285715 3:0 4:1 5:0 6:2 
0.002312735881066759 1:0 2:0 3:0 4:1 5:0 6:0 
0.001295740472110076 1:0 2:0 3:0 4:1 5:0 6:0 
0.162070250613082 1:0.2 2:0.25 3:0 4:1 5:0 6:4 
0.01543604686929585 1:0 2:0 3:0 4:1 5:0 6:0 
0.4423624360643599 1:0 2:0 3:0 4:1 5:0 6:0 
0.00117665407449356 1:0 2:0 3:0 4:1 5:0 6:0 
0.01010148584680083 1:0 2:0 3:0 4:1 5:0 6:0 
0.008289195831290886 1:0 2:0 3:0 4:1 5:0 6:0 
0.01247173790518763 1:0 2:0 3:0 4:1 5:0 6:0 
1 1:0 2:0 3:0 4:1 5:0 6:0 
0.00241964328871151 1:0 2:0 3:0 4:1 5:0 6:0 
0.08873816859966044 1:0 2:0 3:0 4:1 5:0 6:0 
0.09692724569684394 1:0 2:0 3:0 4:1 5:0 6:0 
1 1:0 2:0.375 3:0 4:1 5:0 6:3 
0.2258422534711668 1:0 2:0 3:0 4:1 5:0 6:0 
0.00673866402687313 1:0 2:0 3:0 4:1 5:0 6:0 
0.03801889591095544 1:0 2:0 3:0 4:1 5:0 6:0 
0.01500010801981752 1:0 2:0 3:0 4:1 5:0 6:0 
0.8302061262316277 1:0 2:0 3:0 4:1 5:0 6:0 
0.002204142274862728 1:0 2:0 3:0 4:1 5:0 6:0 
0.004849832832224669 1:0 2:0 3:0 4:1 5:0 6:0 
0.2291032362185344 1:0.75 2:0.7 3:0 4:1 5:0 6:7 
0.05904374142782766 1:0 2:0 3:0 4:1 5:0 6:0 
0.1476827015852075 1:0 2:0 3:0 4:1 5:0 6:0 
0.002962317577332548 1:0 2:0 3:0 4:1 5:0 6:0 
0.3262789608297286 1:0 2:0 3:0 4:1 5:0 6:0 
0.222115501925488 1:1 2:0.64705884 3:1 4:1 5:1 6:12 
0.0235515812113746 1:0 2:0 3:0 4:1 5:0 6:0 
0.008753018109812298 1:0 2:0 3:0 4:1 5:0 6:0 
0.3024038832355939 1:0.25 2:0.06666667 3:1 4:1 5:1 6:1 
0.004884265233737137 1:0 2:0 3:0 4:1 5:0 6:0 
0.01191121661301984 1:0 2:0 3:0 4:1 5:0 6:0 
0.008286131488823009 1:0 2:0 3:0 4:1 5:0 6:0 
0.4341474885189511 1:0 2:0.25 3:1 4:1 5:1 6:2 
0.02942180460163183 1:0 2:0 3:0 4:1 5:0 6:0 
0.01009261297147101 1:0.14285715 2:0 3:0 4:1 5:0 6:0 
0.001943379820130338 1:0 2:0 3:0 4:1 5:0 6:0 
1 1:1 2:0.18181819 3:0 4:1 5:0 6:2 
1 1:0 2:0 3:0 4:1 5:0 6:0 
0.01217334015257586 1:0 2:0.0625 3:0 4:1 5:0 6:1 
0.005369701962741054 1:0 2:0 3:0 4:1 5:0 6:0 
1 1:0 2:0 3:0 4:1 5:0 6:0 
0.8961688808681908 1:1 2:0 3:0 4:1 5:0 6:0 
0.04737463131236292 1:0 2:0 3:0 4:1 5:0 6:0 
0.001386864337269917 1:0 2:0 3:0 4:1 5:0 6:0 
0.1147949263573792 1:0.2 2:0 3:0 4:1 5:0 6:0 
0.810807981387069 1:0 2:0 3:0 4:1 5:0 6:0 
0.002149307596239413 1:0 2:0 3:0 4:1 5:0 6:0 
0.001697886103502818 1:0 2:0 3:0 4:1 5:0 6:0 
-1 1:0 2:0.21428572 3:0 4:0 5:0 6:3 
-0.001788032547882369 1:0 2:0 3:0 4:0 5:0 6:0 
-0.007205447214851122 1:0 2:0 3:0 4:0 5:0 6:0 
-0.002434209826647381 1:0 2:0 3:0 4:0 5:0 6:0 
-0.007182312247861355 1:0 2:0 3:0 4:0 5:0 6:0 
-0.005709692822404867 1:0 2:0 3:0 4:0 5:0 6:0 
-1 1:0 2:0.06666667 3:1 4:0 5:1 6:1 
-0.002608697720902609 1:0 2:0 3:0 4:0 5:0 6:0 
-0.04133843508562902 1:0 2:0 3:0 4:0 5:0 6:0 
-1 1:0 2:0.1875 3:0 4:0 5:0 6:3 
-0.4325747044394622 1:0 2:0 3:0 4:0 5:0 6:0 
-0.1915029518038696 1:0 2:0 3:0 4:0 5:0 6:0 
-0.521390275752465 1:0 2:0 3:0 4:0 5:0 6:0 
-0.207517641097572 1:0 2:0 3:0 4:0 5:0 6:0 
-1 1:1 2:0.15384616 3:0 4:1 5:0 6:2 
-0.1182339296695163 1:0 2:0 3:0 4:0 5:0 6:0 
-1 1:0.75 2:0.16666667 3:0 4:1 5:0 6:2 
-0.001058990039928517 1:0 2:0 3:0 4:0 5:0 6:0 
-0.1088349988237896 1:0 2:0 3:0 4:0 5:0 6:0 
-0.05383883479460613 1:0 2:0 3:0 4:0 5:0 6:0 
-0.006219883626405108 1:0 2:0 3:0 4:0 5:0 6:0 
-0.02467511576687122 1:0 2:0 3:0 4:0 5:0 6:0 
-0.001024428822924502 1:0 2:0 3:0 4:0 5:0 6:0 
-1 1:0 2:0.083333336 3:0 4:0 5:0 6:3 
-0.02060868602821688 1:0 2:0 3:0 4:0 5:0 6:0 
-0.01785513587375255 1:0 2:0 3:0 4:0 5:0 6:0 
-0.003097003610098893 1:0 2:0 3:0 4:0 5:0 6:0 
-0.006571924804968616 1:0 2:0 3:0 4:0 5:0 6:0 
-0.2828896713958293 1:0.2 2:0 3:0 4:0 5:0 6:0 
-0.06528223740915505 1:0 2:0 3:0 4:0 5:0 6:0 
-0.007472595101721395 1:0 2:0 3:0 4:0 5:0 6:0 
-1 1:0 2:0 3:0 4:1 5:0 6:0 
-0.005562003824324193 1:0 2:0 3:0 4:0 5:0 6:0 
-1 1:0.2 2:0 3:0 4:0 5:0 6:0 
-1 1:0.25 2:0 3:0 4:0 5:0 6:0 
-1 1:0.25 2:0 3:0 4:0 5:0 6:0 
-0.01071691779026068 1:0 2:0 3:0 4:0 5:0 6:0 
-1 1:0.14285715 2:0 3:0 4:1 5:0 6:0 
-0.1906009886875702 1:0 2:0.18181819 3:0 4:0 5:0 6:2 
-1 1:0.125 2:0 3:0 4:1 5:0 6:0 
-0.004858875709246729 1:0 2:0 3:0 4:0 5:0 6:0 
-0.01003237284837011 1:0 2:0 3:0 4:0 5:0 6:0 
-1 1:0 2:0 3:0 4:1 5:0 6:0 
-0.02152606348624172 1:0 2:0 3:0 4:0 5:0 6:0 
-0.00818115276598521 1:0 2:0 3:0 4:0 5:0 6:0 
-0.0032878914852831 1:0 2:0 3:0 4:0 5:0 6:0 
-0.01042381611375502 1:0 2:0 3:0 4:0 5:0 6:0 
-1 1:0.2 2:0.071428575 3:0 4:1 5:0 6:1 
-0.002954311989624718 1:0 2:0 3:0 4:0 5:0 6:0 
-0.006171747224988194 1:0 2:0 3:0 4:0 5:0 6:0 
-0.01674164949686048 1:0 2:0 3:0 4:0 5:0 6:0 
-0.007201052638287908 1:0 2:0 3:0 4:0 5:0 6:0 
-0.002278145988757784 1:0 2:0 3:0 4:0 5:0 6:0 
-0.001686870230422395 1:0 2:0 3:0 4:0 5:0 6:0 
-0.001014238010718523 1:0 2:0 3:0 4:0 5:0 6:0 
-0.006470208606436276 1:0 2:0 3:0 4:0 5:0 6:0 
-0.007176393280062128 1:0 2:0 3:0 4:0 5:0 6:0 
-0.02164990449756647 1:0 2:0 3:0 4:0 5:0 6:0 
-0.002132493342478546 1:0 2:0 3:0 4:0 5:0 6:0 
-1 1:0.16666667 2:0.16666667 3:0 4:1 5:0 6:2 
-0.003032978394678141 1:0 2:0 3:0 4:0 5:0 6:0 
-0.003654172736752306 1:0 2:0 3:0 4:0 5:0 6:0 
-1 1:0 2:0.33333334 3:0 4:0 5:0 6:3 
-0.01115978596079288 1:0 2:0 3:0 4:0 5:0 6:0 
